digraph Tree {
node [shape=box, fontname="helvetica"] ;
edge [fontname="helvetica"] ;
0 [label="One-hot-Encoding <= 1.1000105356420002e+25\nsquared_error = 0.09\nsamples = 62\nvalue = 0.496"] ;
1 [label="One-hot-Encoding <= 1.100005001618778e+25\nsquared_error = 0.093\nsamples = 25\nvalue = 0.353"] ;
0 -> 1 [labeldistance=2.5, labelangle=45, headlabel="True"] ;
2 [label="One-hot-Encoding <= 1.1000050006336156e+20\nsquared_error = 0.083\nsamples = 11\nvalue = 0.51"] ;
1 -> 2 ;
3 [label="One-hot-Encoding <= 5.000050540058719e+19\nsquared_error = 0.066\nsamples = 3\nvalue = 0.321"] ;
2 -> 3 ;
4 [label="squared_error = 0.0\nsamples = 1\nvalue = 0.68"] ;
3 -> 4 ;
5 [label="One-hot-Encoding <= 1.0500000474312003e+20\nsquared_error = 0.002\nsamples = 2\nvalue = 0.141"] ;
3 -> 5 ;
6 [label="squared_error = 0.0\nsamples = 1\nvalue = 0.182"] ;
5 -> 6 ;
7 [label="squared_error = 0.0\nsamples = 1\nvalue = 0.1"] ;
5 -> 7 ;
8 [label="One-hot-Encoding <= 5.500055432051222e+24\nsquared_error = 0.071\nsamples = 8\nvalue = 0.581"] ;
2 -> 8 ;
9 [label="One-hot-Encoding <= 1.1055000518859843e+20\nsquared_error = 0.001\nsamples = 3\nvalue = 0.79"] ;
8 -> 9 ;
10 [label="One-hot-Encoding <= 1.1005050585219282e+20\nsquared_error = 0.0\nsamples = 2\nvalue = 0.81"] ;
9 -> 10 ;
11 [label="squared_error = 0.0\nsamples = 1\nvalue = 0.82"] ;
10 -> 11 ;
12 [label="squared_error = -0.0\nsamples = 1\nvalue = 0.8"] ;
10 -> 12 ;
13 [label="squared_error = 0.0\nsamples = 1\nvalue = 0.75"] ;
9 -> 13 ;
14 [label="squared_error = 0.071\nsamples = 5\nvalue = 0.455"] ;
8 -> 14 ;
15 [label="squared_error = 0.066\nsamples = 14\nvalue = 0.23"] ;
1 -> 15 ;
16 [label="One-hot-Encoding <= 1.1055555116184068e+25\nsquared_error = 0.064\nsamples = 37\nvalue = 0.593"] ;
0 -> 16 [labeldistance=2.5, labelangle=-45, headlabel="False"] ;
17 [label="squared_error = 0.065\nsamples = 33\nvalue = 0.573"] ;
16 -> 17 ;
18 [label="One-hot-Encoding <= 5.555555184132903e+25\nsquared_error = 0.023\nsamples = 4\nvalue = 0.756"] ;
16 -> 18 ;
19 [label="squared_error = 0.0\nsamples = 1\nvalue = 0.886"] ;
18 -> 19 ;
20 [label="squared_error = 0.024\nsamples = 3\nvalue = 0.712"] ;
18 -> 20 ;
}